FANN_FLO_2.1
num_layers=3
learning_rate=0.700000
connection_rate=1.000000
network_type=0
learning_momentum=0.000000
training_algorithm=2
train_error_function=1
train_stop_function=0
cascade_output_change_fraction=0.010000
quickprop_decay=-0.000100
quickprop_mu=1.750000
rprop_increase_factor=1.200000
rprop_decrease_factor=0.500000
rprop_delta_min=0.000000
rprop_delta_max=50.000000
rprop_delta_zero=0.100000
cascade_output_stagnation_epochs=12
cascade_candidate_change_fraction=0.010000
cascade_candidate_stagnation_epochs=12
cascade_max_out_epochs=150
cascade_min_out_epochs=50
cascade_max_cand_epochs=150
cascade_min_cand_epochs=50
cascade_num_candidate_groups=2
bit_fail_limit=3.49999994039535522461e-01
cascade_candidate_limit=1.00000000000000000000e+03
cascade_weight_multiplier=4.00000005960464477539e-01
cascade_activation_functions_count=10
cascade_activation_functions=3 5 7 8 10 11 14 15 16 17 
cascade_activation_steepnesses_count=4
cascade_activation_steepnesses=2.50000000000000000000e-01 5.00000000000000000000e-01 7.50000000000000000000e-01 1.00000000000000000000e+00 
layer_sizes=3 10 5 
scale_included=0
neurons (num_inputs, activation_function, activation_steepness)=(0, 0, 0.00000000000000000000e+00) (0, 0, 0.00000000000000000000e+00) (0, 0, 0.00000000000000000000e+00) (3, 5, 5.00000000000000000000e-01) (3, 5, 5.00000000000000000000e-01) (3, 5, 5.00000000000000000000e-01) (3, 5, 5.00000000000000000000e-01) (3, 5, 5.00000000000000000000e-01) (3, 5, 5.00000000000000000000e-01) (3, 5, 5.00000000000000000000e-01) (3, 5, 5.00000000000000000000e-01) (3, 5, 5.00000000000000000000e-01) (0, 5, 0.00000000000000000000e+00) (10, 5, 5.00000000000000000000e-01) (10, 5, 5.00000000000000000000e-01) (10, 5, 5.00000000000000000000e-01) (10, 5, 5.00000000000000000000e-01) (0, 5, 0.00000000000000000000e+00) 
connections (connected_to_neuron, weight)=(0, 2.89490234375000000000e+02) (1, 1.49999731445312500000e+03) (2, 1.50000000000000000000e+03) (0, -5.94296360015869140625e+00) (1, 5.83576126098632812500e+01) (2, -1.05779923498630523682e-01) (0, -1.65463578701019287109e+00) (1, -1.41815161705017089844e+00) (2, -2.58142411708831787109e-01) (0, -7.66246080398559570312e+00) (1, -1.92526817321777343750e+01) (2, 3.46463990211486816406e+00) (0, -1.17490792274475097656e+00) (1, -4.39306831359863281250e+00) (2, -8.88831675052642822266e-01) (0, 1.56324934959411621094e+00) (1, -5.97185194492340087891e-01) (2, -1.41043895855545997620e-02) (0, 2.07515907287597656250e+00) (1, 1.04419755935668945312e+01) (2, -1.74152922630310058594e+00) (0, -2.19574618339538574219e+00) (1, -7.47977375984191894531e-01) (2, -2.51139402389526367188e-01) (0, -1.48124267578125000000e+03) (1, -6.85607290267944335938e+00) (2, -6.71946191787719726562e+00) (3, 1.49071582031250000000e+03) (4, 9.45122619628906250000e+02) (5, 1.29287390136718750000e+03) (6, 1.50000000000000000000e+03) (7, 1.49999084472656250000e+03) (8, 1.49341625976562500000e+03) (9, 1.18685034179687500000e+03) (10, 1.49999157714843750000e+03) (11, 1.33446386718750000000e+03) (12, 1.49071582031250000000e+03) (3, -2.31842398643493652344e-01) (4, 2.15787105560302734375e+01) (5, 9.65384900569915771484e-01) (6, -8.66000595092773437500e+01) (7, 1.05865800380706787109e+00) (8, -2.13730407714843750000e+02) (9, -1.48002960205078125000e+02) (10, 1.30541396141052246094e+00) (11, 4.20106679201126098633e-01) (12, -3.85676026344299316406e-01) (3, -9.85511720180511474609e-01) (4, -8.19309139251708984375e+00) (5, 1.25506234169006347656e+00) (6, -8.24208374023437500000e+01) (7, 2.58583164215087890625e+00) (8, -5.08105888366699218750e+01) (9, -6.49619369506835937500e+01) (10, 1.69112658500671386719e+00) (11, 5.77184629440307617188e+00) (12, -1.72501373291015625000e+01) (3, -2.08398571014404296875e+01) (4, 1.52990853786468505859e+00) (5, 2.41971683502197265625e+00) (6, -6.52112364768981933594e-01) (7, 2.52449822425842285156e+00) (8, 1.23222434520721435547e+00) (9, 2.59855529785156250000e+02) (10, 1.66842520236968994141e+00) (11, 2.89829874038696289062e+00) (12, -5.18375511169433593750e+01) 
