FANN_FLO_2.1
num_layers=3
learning_rate=0.700000
connection_rate=1.000000
network_type=0
learning_momentum=0.000000
training_algorithm=2
train_error_function=1
train_stop_function=0
cascade_output_change_fraction=0.010000
quickprop_decay=-0.000100
quickprop_mu=1.750000
rprop_increase_factor=1.200000
rprop_decrease_factor=0.500000
rprop_delta_min=0.000000
rprop_delta_max=50.000000
rprop_delta_zero=0.100000
cascade_output_stagnation_epochs=12
cascade_candidate_change_fraction=0.010000
cascade_candidate_stagnation_epochs=12
cascade_max_out_epochs=150
cascade_min_out_epochs=50
cascade_max_cand_epochs=150
cascade_min_cand_epochs=50
cascade_num_candidate_groups=2
bit_fail_limit=3.49999994039535522461e-01
cascade_candidate_limit=1.00000000000000000000e+03
cascade_weight_multiplier=4.00000005960464477539e-01
cascade_activation_functions_count=10
cascade_activation_functions=3 5 7 8 10 11 14 15 16 17 
cascade_activation_steepnesses_count=4
cascade_activation_steepnesses=2.50000000000000000000e-01 5.00000000000000000000e-01 7.50000000000000000000e-01 1.00000000000000000000e+00 
layer_sizes=3 10 2 
scale_included=0
neurons (num_inputs, activation_function, activation_steepness)=(0, 0, 0.00000000000000000000e+00) (0, 0, 0.00000000000000000000e+00) (0, 0, 0.00000000000000000000e+00) (3, 5, 5.00000000000000000000e-01) (3, 5, 5.00000000000000000000e-01) (3, 5, 5.00000000000000000000e-01) (3, 5, 5.00000000000000000000e-01) (3, 5, 5.00000000000000000000e-01) (3, 5, 5.00000000000000000000e-01) (3, 5, 5.00000000000000000000e-01) (3, 5, 5.00000000000000000000e-01) (3, 5, 5.00000000000000000000e-01) (0, 5, 0.00000000000000000000e+00) (10, 5, 5.00000000000000000000e-01) (0, 5, 0.00000000000000000000e+00) 
connections (connected_to_neuron, weight)=(0, -1.72356212139129638672e+00) (1, -3.18447089195251464844e+00) (2, 9.01114225387573242188e-01) (0, 7.35141229629516601562e+00) (1, 1.22004022598266601562e+01) (2, 1.92823171615600585938e-01) (0, -4.68878078460693359375e+00) (1, -8.06995964050292968750e+00) (2, 1.15870393812656402588e-01) (0, -1.72204291820526123047e+00) (1, -3.17229342460632324219e+00) (2, 8.02600681781768798828e-01) (0, -4.60796165466308593750e+00) (1, -8.24798393249511718750e+00) (2, 8.44000205397605895996e-02) (0, 2.84038686752319335938e+00) (1, 4.87991523742675781250e+00) (2, -2.42598563432693481445e-01) (0, -4.76658010482788085938e+00) (1, -8.08613014221191406250e+00) (2, 1.72492176294326782227e-01) (0, 1.31014454364776611328e+00) (1, 2.06066393852233886719e+00) (2, 6.83879852294921875000e-01) (0, 6.60483419895172119141e-01) (1, 1.01000142097473144531e+00) (2, -3.07212471961975097656e-01) (3, -4.31776702404022216797e-01) (4, 1.23452100753784179688e+01) (5, -2.36041831970214843750e+01) (6, -4.93390530347824096680e-01) (7, -2.36458683013916015625e+01) (8, 5.16948282718658447266e-01) (9, -1.87600822448730468750e+01) (10, 2.04183027148246765137e-01) (11, 7.50242531299591064453e-01) (12, 8.41622948646545410156e-02) 
