FANN_FLO_2.1
num_layers=3
learning_rate=0.700000
connection_rate=1.000000
network_type=0
learning_momentum=0.000000
training_algorithm=2
train_error_function=1
train_stop_function=0
cascade_output_change_fraction=0.010000
quickprop_decay=-0.000100
quickprop_mu=1.750000
rprop_increase_factor=1.200000
rprop_decrease_factor=0.500000
rprop_delta_min=0.000000
rprop_delta_max=50.000000
rprop_delta_zero=0.100000
cascade_output_stagnation_epochs=12
cascade_candidate_change_fraction=0.010000
cascade_candidate_stagnation_epochs=12
cascade_max_out_epochs=150
cascade_min_out_epochs=50
cascade_max_cand_epochs=150
cascade_min_cand_epochs=50
cascade_num_candidate_groups=2
bit_fail_limit=3.49999994039535522461e-01
cascade_candidate_limit=1.00000000000000000000e+03
cascade_weight_multiplier=4.00000005960464477539e-01
cascade_activation_functions_count=10
cascade_activation_functions=3 5 7 8 10 11 14 15 16 17 
cascade_activation_steepnesses_count=4
cascade_activation_steepnesses=2.50000000000000000000e-01 5.00000000000000000000e-01 7.50000000000000000000e-01 1.00000000000000000000e+00 
layer_sizes=2 10 5 
scale_included=0
neurons (num_inputs, activation_function, activation_steepness)=(0, 0, 0.00000000000000000000e+00) (0, 0, 0.00000000000000000000e+00) (2, 5, 5.00000000000000000000e-01) (2, 5, 5.00000000000000000000e-01) (2, 5, 5.00000000000000000000e-01) (2, 5, 5.00000000000000000000e-01) (2, 5, 5.00000000000000000000e-01) (2, 5, 5.00000000000000000000e-01) (2, 5, 5.00000000000000000000e-01) (2, 5, 5.00000000000000000000e-01) (2, 5, 5.00000000000000000000e-01) (0, 5, 0.00000000000000000000e+00) (10, 5, 5.00000000000000000000e-01) (10, 5, 5.00000000000000000000e-01) (10, 5, 5.00000000000000000000e-01) (10, 5, 5.00000000000000000000e-01) (0, 5, 0.00000000000000000000e+00) 
connections (connected_to_neuron, weight)=(0, 2.20187866210937500000e+02) (1, 1.77988648414611816406e+00) (0, 2.15309963226318359375e+01) (1, 2.64444369822740554810e-02) (0, 2.40452327728271484375e+01) (1, -2.34074488282203674316e-01) (0, 1.70662784576416015625e+01) (1, 1.92922979593276977539e-01) (0, 2.86558675765991210938e+00) (1, -2.35341143608093261719e+00) (0, 3.70999550819396972656e+00) (1, 5.93472599983215332031e-01) (0, -1.49726855468750000000e+03) (1, 1.50000000000000000000e+03) (0, 1.18383288383483886719e+00) (1, -3.18024611473083496094e+00) (0, 2.97893548011779785156e+00) (1, -6.87551140785217285156e-01) (2, 1.50000000000000000000e+03) (3, 1.50000000000000000000e+03) (4, 1.50000000000000000000e+03) (5, 1.50000000000000000000e+03) (6, 1.50000000000000000000e+03) (7, 1.50000000000000000000e+03) (8, 1.50000000000000000000e+03) (9, 1.50000000000000000000e+03) (10, 1.50000000000000000000e+03) (11, 1.50000000000000000000e+03) (2, -5.44464645385742187500e+01) (3, 4.94814682006835937500e+00) (4, 7.35077333450317382812e+00) (5, 5.40766540527343750000e+02) (6, 4.80976009368896484375e+00) (7, -5.63576841354370117188e+00) (8, -1.11582636833190917969e+00) (9, 4.78613090515136718750e+00) (10, 4.94069528579711914062e+00) (11, -1.03325426578521728516e+00) (2, -3.35801353454589843750e+01) (3, 2.60813117027282714844e+00) (4, 2.61040091514587402344e+00) (5, 8.82365417480468750000e+01) (6, 5.45361709594726562500e+00) (7, -3.68050956726074218750e+00) (8, -1.48912000656127929688e+00) (9, 7.92338275909423828125e+00) (10, 6.01435852050781250000e+00) (11, -1.47629904747009277344e+00) (2, -8.26619338989257812500e+00) (3, 2.10638356208801269531e+00) (4, 1.87518489360809326172e+00) (5, -9.45673522949218750000e+01) (6, 1.95919811725616455078e+00) (7, -3.47255592346191406250e+01) (8, 3.49235832691192626953e-01) (9, 8.17371749877929687500e+00) (10, 1.99162268638610839844e+00) (11, -2.57374095916748046875e+00) 
