FANN_FLO_2.1
num_layers=3
learning_rate=0.700000
connection_rate=1.000000
network_type=0
learning_momentum=0.000000
training_algorithm=2
train_error_function=1
train_stop_function=0
cascade_output_change_fraction=0.010000
quickprop_decay=-0.000100
quickprop_mu=1.750000
rprop_increase_factor=1.200000
rprop_decrease_factor=0.500000
rprop_delta_min=0.000000
rprop_delta_max=50.000000
rprop_delta_zero=0.100000
cascade_output_stagnation_epochs=12
cascade_candidate_change_fraction=0.010000
cascade_candidate_stagnation_epochs=12
cascade_max_out_epochs=150
cascade_min_out_epochs=50
cascade_max_cand_epochs=150
cascade_min_cand_epochs=50
cascade_num_candidate_groups=2
bit_fail_limit=3.49999994039535522461e-01
cascade_candidate_limit=1.00000000000000000000e+03
cascade_weight_multiplier=4.00000005960464477539e-01
cascade_activation_functions_count=10
cascade_activation_functions=3 5 7 8 10 11 14 15 16 17 
cascade_activation_steepnesses_count=4
cascade_activation_steepnesses=2.50000000000000000000e-01 5.00000000000000000000e-01 7.50000000000000000000e-01 1.00000000000000000000e+00 
layer_sizes=5 10 2 
scale_included=0
neurons (num_inputs, activation_function, activation_steepness)=(0, 0, 0.00000000000000000000e+00) (0, 0, 0.00000000000000000000e+00) (0, 0, 0.00000000000000000000e+00) (0, 0, 0.00000000000000000000e+00) (0, 0, 0.00000000000000000000e+00) (5, 5, 5.00000000000000000000e-01) (5, 5, 5.00000000000000000000e-01) (5, 5, 5.00000000000000000000e-01) (5, 5, 5.00000000000000000000e-01) (5, 5, 5.00000000000000000000e-01) (5, 5, 5.00000000000000000000e-01) (5, 5, 5.00000000000000000000e-01) (5, 5, 5.00000000000000000000e-01) (5, 5, 5.00000000000000000000e-01) (0, 5, 0.00000000000000000000e+00) (10, 5, 5.00000000000000000000e-01) (0, 5, 0.00000000000000000000e+00) 
connections (connected_to_neuron, weight)=(0, -5.50310935974121093750e+01) (1, -1.63512420654296875000e+01) (2, 4.75895214080810546875e+00) (3, 3.72889480590820312500e+01) (4, 9.63949620723724365234e-01) (0, 1.86448425292968750000e+02) (1, -1.35623292922973632812e+01) (2, -2.49188876152038574219e+00) (3, 1.28527160644531250000e+02) (4, 1.73822104930877685547e+00) (0, -1.49999926757812500000e+03) (1, 2.15552398681640625000e+02) (2, -3.66810668945312500000e+02) (3, 1.02623092651367187500e+02) (4, -6.09216117858886718750e+00) (0, -8.77142150878906250000e+02) (1, -8.97398948669433593750e+00) (2, -6.22284936904907226562e+00) (3, -3.84879684448242187500e+01) (4, 1.68191567063331604004e-01) (0, -9.58361450195312500000e+02) (1, 1.96736312866210937500e+02) (2, 1.06202568054199218750e+02) (3, -5.65673828125000000000e+02) (4, 6.61747503280639648438e+00) (0, 1.04074935913085937500e+02) (1, -1.03606338500976562500e+01) (2, -2.42288732528686523438e+00) (3, 9.61399459838867187500e+01) (4, 1.14962708950042724609e+00) (0, -1.19697534179687500000e+03) (1, 3.01624274253845214844e+00) (2, -2.02784595489501953125e+01) (3, -5.07452728271484375000e+02) (4, 1.70110690593719482422e+00) (0, 1.50000000000000000000e+03) (1, 3.52555632591247558594e+00) (2, 1.44154345989227294922e+00) (3, 3.88023300170898437500e+01) (4, -5.36446809768676757812e-01) (0, -5.09577598571777343750e+01) (1, -1.63327350616455078125e+01) (2, 4.45334148406982421875e+00) (3, 3.66252632141113281250e+01) (4, 7.84495294094085693359e-01) (5, 8.01523284912109375000e+01) (6, 2.23752384185791015625e+01) (7, -1.11592864990234375000e+01) (8, 2.09322616577148437500e+02) (9, -2.25357990264892578125e+01) (10, 3.59272804260253906250e+01) (11, 2.65322685241699218750e+01) (12, 1.40579757690429687500e+02) (13, 1.22237815856933593750e+02) (14, 3.17303031682968139648e-01) 
