FANN_FLO_2.1
num_layers=3
learning_rate=0.700000
connection_rate=1.000000
network_type=0
learning_momentum=0.000000
training_algorithm=2
train_error_function=1
train_stop_function=0
cascade_output_change_fraction=0.010000
quickprop_decay=-0.000100
quickprop_mu=1.750000
rprop_increase_factor=1.200000
rprop_decrease_factor=0.500000
rprop_delta_min=0.000000
rprop_delta_max=50.000000
rprop_delta_zero=0.100000
cascade_output_stagnation_epochs=12
cascade_candidate_change_fraction=0.010000
cascade_candidate_stagnation_epochs=12
cascade_max_out_epochs=150
cascade_min_out_epochs=50
cascade_max_cand_epochs=150
cascade_min_cand_epochs=50
cascade_num_candidate_groups=2
bit_fail_limit=3.49999994039535522461e-01
cascade_candidate_limit=1.00000000000000000000e+03
cascade_weight_multiplier=4.00000005960464477539e-01
cascade_activation_functions_count=10
cascade_activation_functions=3 5 7 8 10 11 14 15 16 17 
cascade_activation_steepnesses_count=4
cascade_activation_steepnesses=2.50000000000000000000e-01 5.00000000000000000000e-01 7.50000000000000000000e-01 1.00000000000000000000e+00 
layer_sizes=4 10 2 
scale_included=0
neurons (num_inputs, activation_function, activation_steepness)=(0, 0, 0.00000000000000000000e+00) (0, 0, 0.00000000000000000000e+00) (0, 0, 0.00000000000000000000e+00) (0, 0, 0.00000000000000000000e+00) (4, 5, 5.00000000000000000000e-01) (4, 5, 5.00000000000000000000e-01) (4, 5, 5.00000000000000000000e-01) (4, 5, 5.00000000000000000000e-01) (4, 5, 5.00000000000000000000e-01) (4, 5, 5.00000000000000000000e-01) (4, 5, 5.00000000000000000000e-01) (4, 5, 5.00000000000000000000e-01) (4, 5, 5.00000000000000000000e-01) (0, 5, 0.00000000000000000000e+00) (10, 5, 5.00000000000000000000e-01) (0, 5, 0.00000000000000000000e+00) 
connections (connected_to_neuron, weight)=(0, 2.21919525146484375000e+02) (1, -3.73990020751953125000e+01) (2, 8.02775497436523437500e+01) (3, 4.02900874614715576172e-01) (0, -5.97719116210937500000e+02) (1, 4.39963378906250000000e+02) (2, 1.48192291259765625000e+02) (3, -1.70030963420867919922e+00) (0, 4.03387527465820312500e+01) (1, -2.69034042358398437500e+01) (2, -9.19657058715820312500e+01) (3, 1.78386032581329345703e+00) (0, -3.84010620117187500000e+01) (1, -1.47028152465820312500e+02) (2, -1.92562236785888671875e+01) (3, -2.35355877876281738281e+00) (0, 3.74653701782226562500e+01) (1, 8.93457698822021484375e+00) (2, 3.48576283454895019531e+00) (3, 6.82256996631622314453e-01) (0, -6.28264904022216796875e+00) (1, 1.70381093025207519531e+00) (2, 1.38241744041442871094e+00) (3, 2.55887061357498168945e-01) (0, 3.34837150573730468750e+01) (1, 8.21656894683837890625e+00) (2, -4.26474422216415405273e-01) (3, 1.60102212429046630859e+00) (0, -1.94367416381835937500e+02) (1, 1.14063011169433593750e+02) (2, 4.26222705841064453125e+00) (3, 3.59606122970581054688e+00) (0, 1.50000000000000000000e+03) (1, -3.58583465576171875000e+02) (2, 1.91826629638671875000e+02) (3, 3.05430006980895996094e+00) (4, 3.71118316650390625000e+01) (5, 2.18446731567382812500e+01) (6, 1.50130825042724609375e+01) (7, 3.96447334289550781250e+01) (8, 3.02427215576171875000e+01) (9, -1.43667648315429687500e+02) (10, -4.40006294250488281250e+01) (11, 3.29513854980468750000e+01) (12, -1.54546241760253906250e+01) (13, 4.77367550134658813477e-01) 
