FANN_FLO_2.1
num_layers=3
learning_rate=0.700000
connection_rate=1.000000
network_type=0
learning_momentum=0.000000
training_algorithm=2
train_error_function=1
train_stop_function=0
cascade_output_change_fraction=0.010000
quickprop_decay=-0.000100
quickprop_mu=1.750000
rprop_increase_factor=1.200000
rprop_decrease_factor=0.500000
rprop_delta_min=0.000000
rprop_delta_max=50.000000
rprop_delta_zero=0.100000
cascade_output_stagnation_epochs=12
cascade_candidate_change_fraction=0.010000
cascade_candidate_stagnation_epochs=12
cascade_max_out_epochs=150
cascade_min_out_epochs=50
cascade_max_cand_epochs=150
cascade_min_cand_epochs=50
cascade_num_candidate_groups=2
bit_fail_limit=3.49999994039535522461e-01
cascade_candidate_limit=1.00000000000000000000e+03
cascade_weight_multiplier=4.00000005960464477539e-01
cascade_activation_functions_count=10
cascade_activation_functions=3 5 7 8 10 11 14 15 16 17 
cascade_activation_steepnesses_count=4
cascade_activation_steepnesses=2.50000000000000000000e-01 5.00000000000000000000e-01 7.50000000000000000000e-01 1.00000000000000000000e+00 
layer_sizes=5 10 4 
scale_included=0
neurons (num_inputs, activation_function, activation_steepness)=(0, 0, 0.00000000000000000000e+00) (0, 0, 0.00000000000000000000e+00) (0, 0, 0.00000000000000000000e+00) (0, 0, 0.00000000000000000000e+00) (0, 0, 0.00000000000000000000e+00) (5, 5, 5.00000000000000000000e-01) (5, 5, 5.00000000000000000000e-01) (5, 5, 5.00000000000000000000e-01) (5, 5, 5.00000000000000000000e-01) (5, 5, 5.00000000000000000000e-01) (5, 5, 5.00000000000000000000e-01) (5, 5, 5.00000000000000000000e-01) (5, 5, 5.00000000000000000000e-01) (5, 5, 5.00000000000000000000e-01) (0, 5, 0.00000000000000000000e+00) (10, 5, 5.00000000000000000000e-01) (10, 5, 5.00000000000000000000e-01) (10, 5, 5.00000000000000000000e-01) (0, 5, 0.00000000000000000000e+00) 
connections (connected_to_neuron, weight)=(0, -2.38211326599121093750e+01) (1, 3.27224195003509521484e-01) (2, -3.06122064590454101562e-01) (3, 1.63734272122383117676e-01) (4, 1.18094414472579956055e-01) (0, -2.42365226745605468750e+01) (1, -3.39959979057312011719e+00) (2, -5.53960466384887695312e+00) (3, -3.32852095365524291992e-01) (4, 6.58515930175781250000e-01) (0, -4.65881967544555664062e+00) (1, 6.52587652206420898438e-01) (2, 1.03381633758544921875e+00) (3, 1.37152954936027526855e-01) (4, -1.06966531276702880859e+00) (0, -3.57675981521606445312e+00) (1, 7.19456970691680908203e-01) (2, 9.94572997093200683594e-01) (3, 5.44998586177825927734e-01) (4, -1.12324321269989013672e+00) (0, -4.84072799682617187500e+01) (1, -1.24417552947998046875e+01) (2, -1.01109237670898437500e+01) (3, -9.87299025058746337891e-01) (4, 2.31106233596801757812e+00) (0, -7.01157531738281250000e+01) (1, 3.43007202148437500000e+01) (2, 1.50192260742187500000e+01) (3, 7.84725397825241088867e-02) (4, 1.28471344709396362305e-01) (0, 1.30346803665161132812e+01) (1, 7.28991127014160156250e+00) (2, 9.89965515136718750000e+01) (3, 3.62977355718612670898e-01) (4, -1.30919575691223144531e+00) (0, -1.00684059143066406250e+02) (1, -1.99189586639404296875e+01) (2, -9.83398666381835937500e+01) (3, 1.50011897087097167969e-01) (4, 2.97592377662658691406e+00) (0, 2.62554645538330078125e+00) (1, -6.24946498870849609375e+00) (2, 1.20173702239990234375e+01) (3, 3.43988537788391113281e-01) (4, 6.07927978038787841797e-01) (5, 1.50000000000000000000e+03) (6, 1.50000000000000000000e+03) (7, 1.50000000000000000000e+03) (8, 1.50000000000000000000e+03) (9, 1.50000000000000000000e+03) (10, -1.28425439453125000000e+03) (11, 1.26283447265625000000e+03) (12, 1.50000000000000000000e+03) (13, 1.50000000000000000000e+03) (14, 1.17002770996093750000e+03) (5, 1.81438541412353515625e+00) (6, 5.73527412414550781250e+01) (7, 1.73115463256835937500e+01) (8, 1.14698944091796875000e+01) (9, 1.42403335571289062500e+01) (10, -8.99874973297119140625e+00) (11, -4.41743135452270507812e+00) (12, -4.54735679626464843750e+01) (13, -1.49197206497192382812e+01) (14, -5.96349048614501953125e+00) (5, 7.06933959960937500000e+02) (6, 3.45434570312500000000e+01) (7, 1.47316979980468750000e+03) (8, 1.47316979980468750000e+03) (9, -1.50000000000000000000e+03) (10, -5.55495605468750000000e+02) (11, 1.50000000000000000000e+03) (12, 1.33342907714843750000e+03) (13, 1.50000000000000000000e+03) (14, 1.50000000000000000000e+03) 
