FANN_FLO_2.1
num_layers=3
learning_rate=0.700000
connection_rate=1.000000
network_type=0
learning_momentum=0.000000
training_algorithm=2
train_error_function=1
train_stop_function=0
cascade_output_change_fraction=0.010000
quickprop_decay=-0.000100
quickprop_mu=1.750000
rprop_increase_factor=1.200000
rprop_decrease_factor=0.500000
rprop_delta_min=0.000000
rprop_delta_max=50.000000
rprop_delta_zero=0.100000
cascade_output_stagnation_epochs=12
cascade_candidate_change_fraction=0.010000
cascade_candidate_stagnation_epochs=12
cascade_max_out_epochs=150
cascade_min_out_epochs=50
cascade_max_cand_epochs=150
cascade_min_cand_epochs=50
cascade_num_candidate_groups=2
bit_fail_limit=3.49999994039535522461e-01
cascade_candidate_limit=1.00000000000000000000e+03
cascade_weight_multiplier=4.00000005960464477539e-01
cascade_activation_functions_count=10
cascade_activation_functions=3 5 7 8 10 11 14 15 16 17 
cascade_activation_steepnesses_count=4
cascade_activation_steepnesses=2.50000000000000000000e-01 5.00000000000000000000e-01 7.50000000000000000000e-01 1.00000000000000000000e+00 
layer_sizes=4 10 3 
scale_included=0
neurons (num_inputs, activation_function, activation_steepness)=(0, 0, 0.00000000000000000000e+00) (0, 0, 0.00000000000000000000e+00) (0, 0, 0.00000000000000000000e+00) (0, 0, 0.00000000000000000000e+00) (4, 5, 5.00000000000000000000e-01) (4, 5, 5.00000000000000000000e-01) (4, 5, 5.00000000000000000000e-01) (4, 5, 5.00000000000000000000e-01) (4, 5, 5.00000000000000000000e-01) (4, 5, 5.00000000000000000000e-01) (4, 5, 5.00000000000000000000e-01) (4, 5, 5.00000000000000000000e-01) (4, 5, 5.00000000000000000000e-01) (0, 5, 0.00000000000000000000e+00) (10, 5, 5.00000000000000000000e-01) (10, 5, 5.00000000000000000000e-01) (0, 5, 0.00000000000000000000e+00) 
connections (connected_to_neuron, weight)=(0, -4.78637695312500000000e+00) (1, 4.79227876663208007812e+00) (2, -4.78777599334716796875e+00) (3, 1.11452937126159667969e+00) (0, 8.87357831001281738281e-01) (1, -6.33008241653442382812e-01) (2, 8.16353440284729003906e-01) (3, -5.59247732162475585938e-01) (0, 4.69353914260864257812e+00) (1, -4.78246450424194335938e+00) (2, 4.83000469207763671875e+00) (3, -2.09919080138206481934e-01) (0, -4.78763818740844726562e+00) (1, 4.71111011505126953125e+00) (2, -4.81011199951171875000e+00) (3, 2.36616894602775573730e-01) (0, 1.89259541034698486328e+00) (1, -1.78706371784210205078e+00) (2, 1.77195942401885986328e+00) (3, -1.53073400259017944336e-01) (0, 8.22373032569885253906e-01) (1, -5.65859913825988769531e-01) (2, 6.47000968456268310547e-01) (3, -5.62284290790557861328e-01) (0, 4.72269487380981445312e+00) (1, -4.74694204330444335938e+00) (2, 4.77729082107543945312e+00) (3, -2.55225002765655517578e-01) (0, 4.81105995178222656250e+00) (1, -4.82082557678222656250e+00) (2, 4.74479055404663085938e+00) (3, -1.45359873771667480469e-01) (0, 4.18597221374511718750e-01) (1, -3.18890437483787536621e-02) (2, 2.20117509365081787109e-01) (3, 2.10958465933799743652e-01) (4, -4.76089477539062500000e+00) (5, 9.26931381225585937500e-01) (6, 4.83479738235473632812e+00) (7, -4.71701765060424804688e+00) (8, 7.79249012470245361328e-01) (9, 9.37118887901306152344e-01) (10, 4.70337057113647460938e+00) (11, 4.73417425155639648438e+00) (12, 5.47140687704086303711e-02) (13, -5.08444786071777343750e-01) (4, 4.73962783813476562500e+00) (5, -1.77852952480316162109e+00) (6, -4.75444126129150390625e+00) (7, 4.80256175994873046875e+00) (8, -7.37294733524322509766e-01) (9, -1.70579242706298828125e+00) (10, -4.83466148376464843750e+00) (11, -4.80955553054809570312e+00) (12, 1.03309527039527893066e-01) (13, 4.83121663331985473633e-01) 
