FANN_FLO_2.1
num_layers=3
learning_rate=0.700000
connection_rate=1.000000
network_type=0
learning_momentum=0.000000
training_algorithm=2
train_error_function=1
train_stop_function=0
cascade_output_change_fraction=0.010000
quickprop_decay=-0.000100
quickprop_mu=1.750000
rprop_increase_factor=1.200000
rprop_decrease_factor=0.500000
rprop_delta_min=0.000000
rprop_delta_max=50.000000
rprop_delta_zero=0.100000
cascade_output_stagnation_epochs=12
cascade_candidate_change_fraction=0.010000
cascade_candidate_stagnation_epochs=12
cascade_max_out_epochs=150
cascade_min_out_epochs=50
cascade_max_cand_epochs=150
cascade_min_cand_epochs=50
cascade_num_candidate_groups=2
bit_fail_limit=3.49999994039535522461e-01
cascade_candidate_limit=1.00000000000000000000e+03
cascade_weight_multiplier=4.00000005960464477539e-01
cascade_activation_functions_count=10
cascade_activation_functions=3 5 7 8 10 11 14 15 16 17 
cascade_activation_steepnesses_count=4
cascade_activation_steepnesses=2.50000000000000000000e-01 5.00000000000000000000e-01 7.50000000000000000000e-01 1.00000000000000000000e+00 
layer_sizes=3 10 4 
scale_included=0
neurons (num_inputs, activation_function, activation_steepness)=(0, 0, 0.00000000000000000000e+00) (0, 0, 0.00000000000000000000e+00) (0, 0, 0.00000000000000000000e+00) (3, 5, 5.00000000000000000000e-01) (3, 5, 5.00000000000000000000e-01) (3, 5, 5.00000000000000000000e-01) (3, 5, 5.00000000000000000000e-01) (3, 5, 5.00000000000000000000e-01) (3, 5, 5.00000000000000000000e-01) (3, 5, 5.00000000000000000000e-01) (3, 5, 5.00000000000000000000e-01) (3, 5, 5.00000000000000000000e-01) (0, 5, 0.00000000000000000000e+00) (10, 5, 5.00000000000000000000e-01) (10, 5, 5.00000000000000000000e-01) (10, 5, 5.00000000000000000000e-01) (0, 5, 0.00000000000000000000e+00) 
connections (connected_to_neuron, weight)=(0, -5.44593667984008789062e+00) (1, 3.06419277191162109375e+00) (2, 8.58025908470153808594e-01) (0, 2.08857822418212890625e+00) (1, -5.67349975585937500000e+02) (2, -6.55436456203460693359e-01) (0, 2.09574055671691894531e+00) (1, 1.64944629669189453125e+01) (2, 4.10814762115478515625e+00) (0, -2.21634030342102050781e+00) (1, -4.26779508590698242188e-01) (2, 8.64270508289337158203e-01) (0, 1.68689479827880859375e+01) (1, -3.35359588623046875000e+02) (2, 4.91397678852081298828e-01) (0, -2.49352908134460449219e+00) (1, -5.72608804702758789062e+00) (2, -1.60935556888580322266e+00) (0, 1.03398449718952178955e-02) (1, 4.68731403350830078125e+00) (2, -1.79427313804626464844e+00) (0, -1.31655287742614746094e+00) (1, -8.60321426391601562500e+00) (2, -7.20935106277465820312e-01) (0, -2.42486834526062011719e+00) (1, -8.33925819396972656250e+00) (2, -1.66882455348968505859e+00) (3, 5.96369873046875000000e+02) (4, 3.23461418151855468750e+01) (5, 4.91373977661132812500e+01) (6, 8.69458961486816406250e+00) (7, -4.58728637695312500000e+01) (8, 2.53627610206604003906e+00) (9, 2.45735859870910644531e+00) (10, 2.96717953681945800781e+00) (11, 2.78997111320495605469e+00) (12, 9.17780590057373046875e+00) (3, 2.11357498168945312500e+01) (4, -2.71729612350463867188e+00) (5, -8.46013054251670837402e-02) (6, -1.78647954016923904419e-02) (7, 8.86009216308593750000e+00) (8, 6.40250861644744873047e-01) (9, 4.65439677238464355469e-01) (10, 6.63850843906402587891e-01) (11, 5.50295710563659667969e-01) (12, -1.03438153862953186035e-01) (3, 1.78346618652343750000e+02) (4, 3.85654174804687500000e+02) (5, 1.39926052093505859375e+00) (6, 1.35491514205932617188e+00) (7, 9.27067947387695312500e+00) (8, 1.05504865646362304688e+01) (9, 2.62849395751953125000e+02) (10, 2.50758695602416992188e+00) (11, 1.05722894668579101562e+01) (12, 3.58302950859069824219e+00) 
