FANN_FLO_2.1
num_layers=3
learning_rate=0.700000
connection_rate=1.000000
network_type=0
learning_momentum=0.000000
training_algorithm=2
train_error_function=1
train_stop_function=0
cascade_output_change_fraction=0.010000
quickprop_decay=-0.000100
quickprop_mu=1.750000
rprop_increase_factor=1.200000
rprop_decrease_factor=0.500000
rprop_delta_min=0.000000
rprop_delta_max=50.000000
rprop_delta_zero=0.100000
cascade_output_stagnation_epochs=12
cascade_candidate_change_fraction=0.010000
cascade_candidate_stagnation_epochs=12
cascade_max_out_epochs=150
cascade_min_out_epochs=50
cascade_max_cand_epochs=150
cascade_min_cand_epochs=50
cascade_num_candidate_groups=2
bit_fail_limit=3.49999994039535522461e-01
cascade_candidate_limit=1.00000000000000000000e+03
cascade_weight_multiplier=4.00000005960464477539e-01
cascade_activation_functions_count=10
cascade_activation_functions=3 5 7 8 10 11 14 15 16 17 
cascade_activation_steepnesses_count=4
cascade_activation_steepnesses=2.50000000000000000000e-01 5.00000000000000000000e-01 7.50000000000000000000e-01 1.00000000000000000000e+00 
layer_sizes=2 10 2 
scale_included=0
neurons (num_inputs, activation_function, activation_steepness)=(0, 0, 0.00000000000000000000e+00) (0, 0, 0.00000000000000000000e+00) (2, 5, 5.00000000000000000000e-01) (2, 5, 5.00000000000000000000e-01) (2, 5, 5.00000000000000000000e-01) (2, 5, 5.00000000000000000000e-01) (2, 5, 5.00000000000000000000e-01) (2, 5, 5.00000000000000000000e-01) (2, 5, 5.00000000000000000000e-01) (2, 5, 5.00000000000000000000e-01) (2, 5, 5.00000000000000000000e-01) (0, 5, 0.00000000000000000000e+00) (10, 5, 5.00000000000000000000e-01) (0, 5, 0.00000000000000000000e+00) 
connections (connected_to_neuron, weight)=(0, -1.38927478790283203125e+01) (1, 3.49040055274963378906e+00) (0, 6.10651636123657226562e+00) (1, 2.25891917943954467773e-01) (0, 2.49531383514404296875e+01) (1, 5.67341089248657226562e-01) (0, 5.52467250823974609375e+00) (1, 1.12954732030630111694e-02) (0, 5.32451629638671875000e+00) (1, 3.60814779996871948242e-01) (0, 1.15909872055053710938e+01) (1, -4.15813356637954711914e-01) (0, 4.27926254272460937500e+00) (1, -4.12232398986816406250e-01) (0, -1.32953214645385742188e+01) (1, 2.19160389900207519531e+00) (0, 5.50984525680541992188e+00) (1, -3.94249968230724334717e-02) (2, -4.18213748931884765625e+00) (3, 1.52804124355316162109e+00) (4, 8.61164188385009765625e+00) (5, 1.40441358089447021484e+00) (6, 7.45783150196075439453e-01) (7, 7.16478204727172851562e+00) (8, 1.07079620361328125000e+01) (9, -6.34439945220947265625e+00) (10, 1.70418632030487060547e+00) (11, -9.22782480716705322266e-01) 
