FANN_FLO_2.1
num_layers=3
learning_rate=0.700000
connection_rate=1.000000
network_type=0
learning_momentum=0.000000
training_algorithm=2
train_error_function=1
train_stop_function=0
cascade_output_change_fraction=0.010000
quickprop_decay=-0.000100
quickprop_mu=1.750000
rprop_increase_factor=1.200000
rprop_decrease_factor=0.500000
rprop_delta_min=0.000000
rprop_delta_max=50.000000
rprop_delta_zero=0.100000
cascade_output_stagnation_epochs=12
cascade_candidate_change_fraction=0.010000
cascade_candidate_stagnation_epochs=12
cascade_max_out_epochs=150
cascade_min_out_epochs=50
cascade_max_cand_epochs=150
cascade_min_cand_epochs=50
cascade_num_candidate_groups=2
bit_fail_limit=3.49999994039535522461e-01
cascade_candidate_limit=1.00000000000000000000e+03
cascade_weight_multiplier=4.00000005960464477539e-01
cascade_activation_functions_count=10
cascade_activation_functions=3 5 7 8 10 11 14 15 16 17 
cascade_activation_steepnesses_count=4
cascade_activation_steepnesses=2.50000000000000000000e-01 5.00000000000000000000e-01 7.50000000000000000000e-01 1.00000000000000000000e+00 
layer_sizes=3 10 2 
scale_included=0
neurons (num_inputs, activation_function, activation_steepness)=(0, 0, 0.00000000000000000000e+00) (0, 0, 0.00000000000000000000e+00) (0, 0, 0.00000000000000000000e+00) (3, 5, 5.00000000000000000000e-01) (3, 5, 5.00000000000000000000e-01) (3, 5, 5.00000000000000000000e-01) (3, 5, 5.00000000000000000000e-01) (3, 5, 5.00000000000000000000e-01) (3, 5, 5.00000000000000000000e-01) (3, 5, 5.00000000000000000000e-01) (3, 5, 5.00000000000000000000e-01) (3, 5, 5.00000000000000000000e-01) (0, 5, 0.00000000000000000000e+00) (10, 5, 5.00000000000000000000e-01) (0, 5, 0.00000000000000000000e+00) 
connections (connected_to_neuron, weight)=(0, 2.01619644165039062500e+02) (1, 6.99529037475585937500e+01) (2, 3.45930337905883789062e+00) (0, -3.37520294189453125000e+01) (1, -3.38769836425781250000e+01) (2, 3.18067818880081176758e-02) (0, 2.01592819213867187500e+02) (1, 7.00296096801757812500e+01) (2, 3.43494462966918945312e+00) (0, 6.00486488342285156250e+01) (1, 9.60273265838623046875e+00) (2, 1.65213882923126220703e-01) (0, 2.00798446655273437500e+02) (1, 6.99195785522460937500e+01) (2, 3.52652645111083984375e+00) (0, -1.57188391685485839844e+00) (1, -1.81260528564453125000e+02) (2, 5.68280982971191406250e+00) (0, 2.00865890502929687500e+02) (1, 6.99709701538085937500e+01) (2, 3.43627309799194335938e+00) (0, 2.29127292633056640625e+01) (1, 2.42117452621459960938e+00) (2, 1.41519737243652343750e+00) (0, 4.52717437744140625000e+01) (1, 8.40133762359619140625e+00) (2, 3.17427217960357666016e-01) (3, -2.61755037307739257812e+00) (4, -9.42468404769897460938e-01) (5, -2.60952281951904296875e+00) (6, 3.40458011627197265625e+00) (7, -1.37498104572296142578e+00) (8, -2.52747845649719238281e+00) (9, -2.64766335487365722656e+00) (10, 3.28310441970825195312e+00) (11, 5.22038936614990234375e+00) (12, 2.08154225349426269531e+00) 
