FANN_FLO_2.1
num_layers=3
learning_rate=0.700000
connection_rate=1.000000
network_type=0
learning_momentum=0.000000
training_algorithm=2
train_error_function=1
train_stop_function=0
cascade_output_change_fraction=0.010000
quickprop_decay=-0.000100
quickprop_mu=1.750000
rprop_increase_factor=1.200000
rprop_decrease_factor=0.500000
rprop_delta_min=0.000000
rprop_delta_max=50.000000
rprop_delta_zero=0.100000
cascade_output_stagnation_epochs=12
cascade_candidate_change_fraction=0.010000
cascade_candidate_stagnation_epochs=12
cascade_max_out_epochs=150
cascade_min_out_epochs=50
cascade_max_cand_epochs=150
cascade_min_cand_epochs=50
cascade_num_candidate_groups=2
bit_fail_limit=3.49999994039535522461e-01
cascade_candidate_limit=1.00000000000000000000e+03
cascade_weight_multiplier=4.00000005960464477539e-01
cascade_activation_functions_count=10
cascade_activation_functions=3 5 7 8 10 11 14 15 16 17 
cascade_activation_steepnesses_count=4
cascade_activation_steepnesses=2.50000000000000000000e-01 5.00000000000000000000e-01 7.50000000000000000000e-01 1.00000000000000000000e+00 
layer_sizes=4 10 5 
scale_included=0
neurons (num_inputs, activation_function, activation_steepness)=(0, 0, 0.00000000000000000000e+00) (0, 0, 0.00000000000000000000e+00) (0, 0, 0.00000000000000000000e+00) (0, 0, 0.00000000000000000000e+00) (4, 5, 5.00000000000000000000e-01) (4, 5, 5.00000000000000000000e-01) (4, 5, 5.00000000000000000000e-01) (4, 5, 5.00000000000000000000e-01) (4, 5, 5.00000000000000000000e-01) (4, 5, 5.00000000000000000000e-01) (4, 5, 5.00000000000000000000e-01) (4, 5, 5.00000000000000000000e-01) (4, 5, 5.00000000000000000000e-01) (0, 5, 0.00000000000000000000e+00) (10, 5, 5.00000000000000000000e-01) (10, 5, 5.00000000000000000000e-01) (10, 5, 5.00000000000000000000e-01) (10, 5, 5.00000000000000000000e-01) (0, 5, 0.00000000000000000000e+00) 
connections (connected_to_neuron, weight)=(0, 5.79775142669677734375e+00) (1, 2.77849984169006347656e+00) (2, 2.63752716064453125000e+02) (3, -3.23175787925720214844e-01) (0, -1.15172395706176757812e+01) (1, -8.23427391052246093750e+00) (2, -2.15353302001953125000e+02) (3, 6.58114016056060791016e-01) (0, 1.02457336425781250000e+02) (1, 6.41622161865234375000e+01) (2, -1.32450851440429687500e+02) (3, 3.45826005935668945312e+00) (0, -1.48813574218750000000e+03) (1, -1.30397195816040039062e+01) (2, -5.98041564941406250000e+02) (3, -3.75672416687011718750e+01) (0, 7.15963134765625000000e+01) (1, 6.33525352478027343750e+01) (2, -1.36057907104492187500e+02) (3, 3.15996646881103515625e+00) (0, -1.39891662597656250000e+02) (1, 1.64647842407226562500e+02) (2, 1.50000000000000000000e+03) (3, -3.98153162002563476562e+00) (0, 3.00968589782714843750e+01) (1, -1.06292295455932617188e+01) (2, 2.71141529083251953125e+00) (3, 3.25446271896362304688e+00) (0, -1.02618420124053955078e+00) (1, 2.88592219352722167969e+00) (2, -8.99201774597167968750e+00) (3, -3.28768551349639892578e-01) (0, 2.83079299926757812500e+01) (1, 1.16631221771240234375e+00) (2, 3.41720199584960937500e+01) (3, -8.59348401427268981934e-02) (4, -3.29366569519042968750e+01) (5, -4.04086723327636718750e+01) (6, 3.18481349945068359375e+00) (7, 5.16674280166625976562e+00) (8, -1.60620307922363281250e+01) (9, 1.41439676284790039062e+01) (10, 4.40178260803222656250e+01) (11, 2.23507217407226562500e+02) (12, 4.37390184402465820312e+00) (13, -1.25424327850341796875e+01) (4, 2.45409069061279296875e+01) (5, 3.08335323333740234375e+01) (6, 1.70310802459716796875e+01) (7, 1.15555152893066406250e+01) (8, -7.54204571247100830078e-01) (9, -5.41582822799682617188e+00) (10, -2.76780490875244140625e+01) (11, -1.38786499023437500000e+02) (12, 4.30330514907836914062e+00) (13, -1.37000942230224609375e+01) (4, -2.96087417602539062500e+01) (5, -5.18314590454101562500e+01) (6, -3.63877754211425781250e+01) (7, -2.72678546905517578125e+01) (8, 2.81688404083251953125e+01) (9, -8.53709869384765625000e+01) (10, -1.49979581832885742188e+01) (11, 2.89959320068359375000e+02) (12, 1.17827552795410156250e+02) (13, 4.56317634582519531250e+01) (4, -5.61382789611816406250e+01) (5, -6.39990921020507812500e+01) (6, 3.71181106567382812500e+00) (7, -9.02690792083740234375e+00) (8, -1.82108955383300781250e+01) (9, 7.44709253311157226562e+00) (10, -1.18351440429687500000e+01) (11, -2.10351730346679687500e+02) (12, -5.01365699768066406250e+01) (13, -1.27709560394287109375e+01) 
